digraph Tree {
node [shape=box, style="filled, rounded", color="black", fontname=helvetica] ;
edge [fontname=helvetica] ;
0 [label="thalassemia_normal <= -0.11\ngini = 0.5\nsamples = 100.0%\nvalue = [0.52, 0.48]\nclass = disease", fillcolor="#fdf3ed"] ;
1 [label="st_depression <= -0.25\n0.38\n48.3%\n[0.26, 0.74]\ndisease", fillcolor="#7ebfee"] ;
0 -> 1 [labeldistance=2.5, labelangle=45, headlabel="True"] ;
2 [label="resting_blood_pressure <= -0.52\n0.48\n14.3%\n[0.6, 0.4]\ndisease", fillcolor="#f6d5bd"] ;
1 -> 2 ;
3 [label="rest_ecg_normal <= 0.0\n0.18\n4.8%\n[0.9, 0.1]\ndisease", fillcolor="#e88f4f"] ;
2 -> 3 ;
4 [label="cholesterol <= -1.48\n0.5\n1.4%\n[0.5, 0.5]\ndisease", fillcolor="#ffffff"] ;
3 -> 4 ;
5 [label="0.0\n0.7%\n[0.0, 1.0]\ndisease", fillcolor="#399de5"] ;
4 -> 5 ;
6 [label="0.0\n0.7%\n[1.0, 0.0]\ndisease", fillcolor="#e58139"] ;
4 -> 6 ;
7 [label="0.0\n3.4%\n[1.0, 0.0]\ndisease", fillcolor="#e58139"] ;
3 -> 7 ;
8 [label="resting_blood_pressure <= 0.59\n0.48\n9.5%\n[0.4, 0.6]\ndisease", fillcolor="#bddef6"] ;
2 -> 8 ;
9 [label="cholesterol <= -0.02\n0.5\n7.5%\n[0.5, 0.5]\ndisease", fillcolor="#ffffff"] ;
8 -> 9 ;
10 [label="0.0\n2.7%\n[1.0, 0.0]\ndisease", fillcolor="#e58139"] ;
9 -> 10 ;
11 [label="0.38\n4.8%\n[0.25, 0.75]\ndisease", fillcolor="#7bbeee"] ;
9 -> 11 ;
12 [label="0.0\n2.0%\n[0.0, 1.0]\ndisease", fillcolor="#399de5"] ;
8 -> 12 ;
13 [label="max_heart_rate_achieved <= 0.03\n0.26\n34.0%\n[0.15, 0.85]\ndisease", fillcolor="#5caeea"] ;
1 -> 13 ;
14 [label="st_depression <= 0.7\n0.04\n23.8%\n[0.02, 0.98]\ndisease", fillcolor="#3d9fe5"] ;
13 -> 14 ;
15 [label="st_depression <= 0.62\n0.07\n11.6%\n[0.04, 0.96]\ndisease", fillcolor="#41a1e6"] ;
14 -> 15 ;
16 [label="0.0\n10.9%\n[0.0, 1.0]\ndisease", fillcolor="#399de5"] ;
15 -> 16 ;
17 [label="0.0\n0.7%\n[1.0, 0.0]\ndisease", fillcolor="#e58139"] ;
15 -> 17 ;
18 [label="0.0\n12.2%\n[0.0, 1.0]\ndisease", fillcolor="#399de5"] ;
14 -> 18 ;
19 [label="chest_pain_type_typical angina <= 1.6\n0.49\n10.2%\n[0.44, 0.56]\ndisease", fillcolor="#d5eaf9"] ;
13 -> 19 ;
20 [label="fasting_blood_sugar_lower than 120mg/dl <= -0.99\n0.39\n7.5%\n[0.26, 0.74]\ndisease", fillcolor="#80c0ee"] ;
19 -> 20 ;
21 [label="0.0\n2.0%\n[0.0, 1.0]\ndisease", fillcolor="#399de5"] ;
20 -> 21 ;
22 [label="0.49\n5.4%\n[0.42, 0.58]\ndisease", fillcolor="#c6e3f8"] ;
20 -> 22 ;
23 [label="0.0\n2.7%\n[1.0, 0.0]\ndisease", fillcolor="#e58139"] ;
19 -> 23 ;
24 [label="sex_male <= -0.39\n0.37\n51.7%\n[0.75, 0.25]\ndisease", fillcolor="#edaa7a"] ;
0 -> 24 [labeldistance=2.5, labelangle=-45, headlabel="False"] ;
25 [label="num_major_vessels <= 0.9\n0.09\n25.9%\n[0.95, 0.05]\ndisease", fillcolor="#e68743"] ;
24 -> 25 ;
26 [label="max_heart_rate_achieved <= 0.8\n0.04\n23.8%\n[0.98, 0.02]\ndisease", fillcolor="#e5833d"] ;
25 -> 26 ;
27 [label="0.0\n16.3%\n[1.0, 0.0]\ndisease", fillcolor="#e58139"] ;
26 -> 27 ;
28 [label="rest_ecg_normal <= 0.0\n0.12\n7.5%\n[0.94, 0.06]\ndisease", fillcolor="#e78946"] ;
26 -> 28 ;
29 [label="0.28\n3.4%\n[0.83, 0.17]\ndisease", fillcolor="#ea9a61"] ;
28 -> 29 ;
30 [label="0.0\n4.1%\n[1.0, 0.0]\ndisease", fillcolor="#e58139"] ;
28 -> 30 ;
31 [label="chest_pain_type_typical angina <= 1.6\n0.44\n2.0%\n[0.67, 0.33]\ndisease", fillcolor="#f2c09c"] ;
25 -> 31 ;
32 [label="0.0\n1.4%\n[0.0, 1.0]\ndisease", fillcolor="#399de5"] ;
31 -> 32 ;
33 [label="0.0\n0.7%\n[1.0, 0.0]\ndisease", fillcolor="#e58139"] ;
31 -> 33 ;
34 [label="resting_blood_pressure <= 1.17\n0.5\n25.9%\n[0.55, 0.45]\ndisease", fillcolor="#fae8db"] ;
24 -> 34 ;
35 [label="num_major_vessels <= -0.18\n0.48\n24.5%\n[0.59, 0.41]\ndisease", fillcolor="#f7d9c3"] ;
34 -> 35 ;
36 [label="max_heart_rate_achieved <= 0.49\n0.33\n17.7%\n[0.79, 0.21]\ndisease", fillcolor="#eca26c"] ;
35 -> 36 ;
37 [label="0.49\n8.2%\n[0.56, 0.44]\ndisease", fillcolor="#fae6d7"] ;
36 -> 37 ;
38 [label="0.0\n9.5%\n[1.0, 0.0]\ndisease", fillcolor="#e58139"] ;
36 -> 38 ;
39 [label="st_depression <= -0.53\n0.21\n6.8%\n[0.12, 0.88]\ndisease", fillcolor="#53aae8"] ;
35 -> 39 ;
40 [label="0.0\n2.0%\n[0.0, 1.0]\ndisease", fillcolor="#399de5"] ;
39 -> 40 ;
41 [label="0.35\n4.8%\n[0.22, 0.78]\ndisease", fillcolor="#72b9ec"] ;
39 -> 41 ;
42 [label="0.0\n1.4%\n[0.0, 1.0]\ndisease", fillcolor="#399de5"] ;
34 -> 42 ;
}